EPSILON: 0.01, AVERAGE TRAINING_SIMILARITY: -0.379843488671
W1:
-2.31568070e-04,  -2.31568070e-04,  -2.31568070e-04, -2.31568070e-04,  -2.31568070e-04,  -2.31568070e-04, -2.31568070e-04,  -2.31568070e-04],
1.26166372e-04,   1.26166372e-04,   1.26166372e-04, 1.26166372e-04,   1.26166372e-04,   1.26166372e-04, 1.26166372e-04,   1.26166372e-04],
-1.38441655e-04,  -1.38441655e-04,  -1.38441655e-04, -1.38441655e-04,  -1.38441655e-04,  -1.38441655e-04, -1.38441655e-04,  -1.38441655e-04],
2.69871329e-04,   2.69871329e-04,   2.69871329e-04, 2.69871329e-04,   2.69871329e-04,   2.69871329e-04, 2.69871329e-04,   2.69871329e-04],
3.95093489e-05,   3.95093489e-05,   3.95093489e-05, 3.95093489e-05,   3.95093489e-05,   3.95093489e-05, 3.95093489e-05,   3.95093489e-05],
-1.10663647e-04,  -1.10663647e-04,  -1.10663647e-04, -1.10663647e-04,  -1.10663647e-04,  -1.10663647e-04, -1.10663647e-04,  -1.10663647e-04],
2.94059046e-04,   2.94059046e-04,   2.94059046e-04, 2.94059046e-04,   2.94059046e-04,   2.94059046e-04, 2.94059046e-04,   2.94059046e-04],
-1.89201085e-04,  -1.89201085e-04,  -1.89201085e-04, -1.89201085e-04,  -1.89201085e-04,  -1.89201085e-04, -1.89201085e-04,  -1.89201085e-04]

W2:
-0.02665669, -0.00877596, -0.02169479, -0.00114203, -0.01258884, -0.0208249 , -0.00022615, -0.02462909],
-0.02665669, -0.00877596, -0.02169479, -0.00114203, -0.01258884, -0.0208249 , -0.00022615, -0.02462909],
-0.02665669, -0.00877596, -0.02169479, -0.00114203, -0.01258884, -0.0208249 , -0.00022615, -0.02462909],
-0.02665669, -0.00877596, -0.02169479, -0.00114203, -0.01258884, -0.0208249 , -0.00022615, -0.02462909],
-0.02665669, -0.00877596, -0.02169479, -0.00114203, -0.01258884, -0.0208249 , -0.00022615, -0.02462909],
-0.02665669, -0.00877596, -0.02169479, -0.00114203, -0.01258884, -0.0208249 , -0.00022615, -0.02462909],
-0.02665669, -0.00877596, -0.02169479, -0.00114203, -0.01258884, -0.0208249 , -0.00022615, -0.02462909],
-0.02665669, -0.00877596, -0.02169479, -0.00114203, -0.01258884, -0.0208249 , -0.00022615, -0.02462909]